0.000000000000000000e+00
2.207278646474990780e-01
1.022693371420917569e-01
6.426145499100524572e-02
5.476636274693517936e-02
4.982529143895285395e-02
4.342102517723776811e-02
3.605074638121433250e-02
2.903834061443637260e-02
2.304721352334153373e-02
1.816917181667042358e-02
4.577519916816583101e-02
7.407996554424757518e-02
9.823557125700879689e-02
1.153147069290484106e-01
1.289295150163764503e-01
1.417361519883959808e-01
1.525601940679887081e-01
1.593765676563812517e-01
1.615507762965138205e-01
1.594883431032204646e-01
1.530811950557727508e-01
1.447758988643604861e-01
1.296830747316853882e-01
1.058998506061853417e-01
7.674346710000645722e-02
4.709231992168433356e-02
2.031522788547046598e-02
-1.912320479331430789e-03
-1.895726991378382520e-02
-2.482370942985834272e-02
-2.044660044966567503e-02
-8.944189697807747308e-03
5.327655667848096854e-03
1.890256085888619708e-02
3.008248194444484991e-02
3.932479014939327389e-02
4.965583973653919792e-02
6.588230839901199065e-02
9.160340503584579741e-02
1.256199095887653994e-01
1.593158101973997653e-01
1.856135407815835414e-01
2.019117690241638563e-01
2.088212175566234730e-01
2.078654451690279958e-01
2.004909371518655004e-01
1.880549736734551947e-01
1.719008801521447749e-01
1.543101666652660908e-01
1.373421037293198199e-01
1.223108585834672968e-01
1.095128411076788932e-01
9.841884882798657141e-02
8.801359306017975115e-02
7.703989495556318179e-02
6.422447173439949086e-02
4.868300312210571690e-02
3.067007775513597156e-02
1.244240068124158327e-02
-2.720642671364403853e-03
-1.152972302860100218e-02
-1.212414706698927702e-02
-5.160672855857861840e-03
6.068986617458693722e-03
1.687309937496628276e-02
2.312177251970998215e-02
2.236098227317651066e-02
1.325606900414494360e-02
-4.421473627656380412e-03
-2.864095136511835005e-02
-5.453569394384955027e-02
-7.612835493289610289e-02
-8.905576341870691248e-02
-9.211208987648356050e-02
-8.708418330594597245e-02
-7.748737428379001702e-02
-6.695727465662446032e-02
-5.800443021110554542e-02
-5.143047748854900902e-02
-4.660622832421404405e-02
-4.245866013992666277e-02
-3.878219504402274920e-02
-3.679287199577802037e-02
-3.800120972823700649e-02
-4.267506491998518392e-02
-4.964683966835320428e-02
-5.720177712158835970e-02
-6.461182793625008802e-02
-7.346636526900407471e-02
-8.686141780746386987e-02
-1.060843110371951226e-01
-1.274883259376670130e-01
-1.430877938091332791e-01
-1.452933026551965767e-01
-1.315185043056597003e-01
-1.047794138195394242e-01
-7.115350326931918490e-02
-3.686864516135046621e-02
-6.635750517787697422e-03
1.662188457792418417e-02
3.123905498371820633e-02
3.620902309146262210e-02
3.103640998312090504e-02
1.615723459491569258e-02
-6.176856550962894765e-03
-3.122183992940741337e-02
-5.292212871074941649e-02
-6.672226139632675412e-02
-7.105687616612632596e-02
-6.653906908924545061e-02
-5.459981033140792750e-02
-3.693508690706193143e-02
-1.585321689042018534e-02
5.192058684544642588e-03
2.196496264139513599e-02
3.108626772220024481e-02
3.169212303312052281e-02
2.542818578655869910e-02
1.501050720685281892e-02
2.924363010445518718e-03
-8.964943544102377260e-03
-1.893955135877800622e-02
-2.440221384897245382e-02
-2.159710675468595742e-02
-7.667313952871401828e-03
1.639219242992201453e-02
4.520715392706431413e-02
7.157468384123100158e-02
8.989323706933144420e-02
9.809715837119498127e-02
9.737652641029448386e-02
9.050911831179891953e-02
8.004503691772280050e-02
6.739925462896279029e-02
5.330518651828414223e-02
3.882314828497324122e-02
2.562906082601068558e-02
1.544753988733071903e-02
9.396050687947243851e-03
7.743812842868680324e-03
9.999404424150204473e-03
1.494727835588632869e-02
2.045074493304599450e-02
2.359676491650003483e-02
2.212109022745661902e-02
1.645992598643319926e-02
9.977431287315430275e-03
6.437866504455658223e-03
6.773165128272529145e-03
7.926214492454675131e-03
4.777769946511911670e-03
-6.155228976050364231e-03
-2.359877546946764770e-02
-4.108205672438114409e-02
-5.026525577978224746e-02
-4.630183703062162870e-02
-3.055391679015118100e-02
-8.490790182579477374e-03
1.421725734790602047e-02
3.404338383159044579e-02
4.983979164456764366e-02
6.187498437769212156e-02
7.045930960412127853e-02
7.475793565329069690e-02
7.260733588173029496e-02
6.190130414579908535e-02
4.269698975733760005e-02
1.817449786599956152e-02
-6.369713965029277780e-03
-2.561055263899547629e-02
-3.618317354622546667e-02
-3.795247327088357991e-02
-3.406151510598781629e-02
-2.931111294208293971e-02
-2.737292746595276771e-02
-2.879087246359146590e-02
-3.149909377322485105e-02
-3.276488898004203953e-02
-3.018953958664710724e-02
-2.194964582627045857e-02
-7.685831040078194842e-03
1.042287756761636763e-02
2.784630536533794221e-02
3.941321570825684351e-02
4.155767046513544893e-02
3.388835340134638274e-02
1.931274138578750743e-02
2.792647289541150268e-03
-1.050143839010395097e-02
-1.691043593832705638e-02
-1.553275395839051609e-02
-8.411654108853194867e-03
1.113398343447757899e-03
1.064525593349485710e-02
1.923162928814553529e-02
2.673231275279464025e-02
3.307800405752259199e-02
3.711236781872173651e-02
3.620597589347390732e-02
2.790339263296681693e-02
1.212937770983896213e-02
-8.550741998773370156e-03
-3.011679835718544807e-02
-4.739329431718758423e-02
-5.524802761951536079e-02
-5.185926200049884027e-02
-3.985015513674022847e-02
-2.394552246401948636e-02
-8.199545873402602769e-03
5.144053640550705353e-03
1.536050836530650221e-02
2.250126686785697272e-02
2.678822872273622924e-02
2.822313123367153898e-02
2.651442963561756461e-02
2.116675285846858490e-02
1.153459109759558121e-02
-2.754619101280497695e-03
-2.101018664519493928e-02
-4.080646385402020293e-02
-5.779339063167043822e-02
-6.667460955328685657e-02
-6.386905939713216629e-02
-5.042488979770154423e-02
-3.206554383341764236e-02
-1.541630160962836893e-02
-4.040196211318014541e-03
2.128801213896136524e-03
4.826710359020824903e-03
5.462169288560803082e-03
4.170115248717354284e-03
2.235644354140475798e-04
-6.099489699712856705e-03
-1.189140591937321023e-02
-1.293405125894020458e-02
-6.984472705049205032e-03
4.443710240578102599e-03
1.706143482490785068e-02
2.625885345243050839e-02
2.915402882369960702e-02
2.528434612500785050e-02
1.623002863355904601e-02
4.744303163743412988e-03
-6.486813902210508687e-03
-1.576523932167039899e-02
-2.206585178101894140e-02
-2.445536821415389417e-02
-2.233398631353300523e-02
-1.601214521037508387e-02
-6.862115687357228655e-03
3.062457727960737897e-03
1.165897357415027202e-02
1.739754366077875258e-02
1.970539619104433315e-02
1.883637402570964570e-02
1.527764560821398554e-02
9.379775137374035676e-03
1.762991678942060769e-03
-5.933848125729390688e-03
-1.072729533655081280e-02
-8.834802671725705547e-03
2.552389710230862363e-03
2.290140564582504590e-02
4.755144885023876444e-02
6.963836220266217403e-02
8.268709051182393521e-02
8.173343561644247357e-02
6.460431887875417445e-02
3.483295061216318267e-02
2.168456040370525528e-03
-2.247308226090327654e-02
-3.317851709239749702e-02
-3.074659710314653349e-02
-2.006635664446143608e-02
-6.639459564458438656e-03
5.481260079880923008e-03
1.414528134214110278e-02
1.856005181448805441e-02
1.841317980144874245e-02
1.340408652684221824e-02
3.659057118614583715e-03
-9.490301020773639351e-03
-2.331624400436527189e-02
-3.429898109762208325e-02
-3.912495240741875602e-02
-3.575159418119377985e-02
-2.441536624895646046e-02
-8.140486342157915445e-03
8.044830436939820473e-03
1.933210047815825394e-02
2.351462739931647894e-02
2.156124621564081689e-02
1.593284729590110915e-02
8.581689640032141853e-03
4.260549295207471943e-04
-7.906541376613451799e-03
-1.522020811324437117e-02
-1.975901288891163121e-02
-2.035248882160989314e-02
-1.755474940111995119e-02
-1.330922151841856804e-02
-9.543866720993388064e-03
-7.215532106722100103e-03
-6.353295378305368057e-03
-6.691056025891095604e-03
-8.395319558770208968e-03
-1.231994251387980022e-02
-1.926207701367377290e-02
-2.858139930687692010e-02
-3.746304163211661153e-02
-4.175485287989744165e-02
-3.799104008356679607e-02
-2.519002815445187116e-02
-5.255299546929215193e-03
1.793498096471579650e-02
3.979467934153213537e-02
5.612358280491486218e-02
6.417222459144128477e-02
6.331344303283509278e-02
5.476509028660270229e-02
4.084855142126275762e-02
2.445206390250864725e-02
8.700734939129928236e-03
-3.385146868361665895e-03
-9.344722180945064238e-03
-7.933171534247551726e-03
1.072446118032255313e-04
1.190886534610902103e-02
2.373355989647263353e-02
3.275885686235635585e-02
3.778685179931073890e-02
3.870560418874602338e-02
3.563375374013233454e-02
2.854298113269049253e-02
1.773419312694191063e-02
4.899742731349188141e-03
-6.577637761202570488e-03
-1.314135176070019284e-02
-1.318244574015003945e-02
-7.784055935520062253e-03
2.973942925987849151e-04
8.290694149030553017e-03
1.440511650695530665e-02
1.773886867896801167e-02
1.778059428885375715e-02
1.446388954948435446e-02
8.799666346904433389e-03
3.072779877679954197e-03
-1.762428320147835237e-04
2.293449459295215931e-04
3.287316892240238486e-03
6.419626327307609293e-03
6.951317945431578771e-03
3.530118344729576974e-03
-3.172522692740847861e-03
-1.071546637491271881e-02
-1.605348778387688524e-02
-1.729358357904106636e-02
-1.504636040705070732e-02
-1.192899463399466065e-02
-1.050427254438002223e-02
-1.193698001604420744e-02
-1.595868738790884311e-02
-2.139406329971532683e-02
-2.736161375020901287e-02
-3.407181045281021392e-02
-4.138818268442856496e-02
-4.653649924437364138e-02
-4.553411377721588993e-02
-3.879882725899413964e-02
-3.207665148279342793e-02
-2.909675025904834289e-02
-2.760020152286363215e-02
-2.361726396085106483e-02
-1.580855886243920372e-02
-5.533008932474658970e-03
4.952413072763284241e-03
1.369910787616723802e-02
1.939862538276510007e-02
2.138426341493576688e-02
1.959022215639599773e-02
1.466929919837522966e-02
8.061892448284146973e-03
1.184365269082943151e-03
-5.798040809128934825e-03
-1.399983578666719186e-02
-2.441622413964050775e-02
-3.616124368790751831e-02
-4.574875135934275416e-02
-4.863051046314559311e-02
-4.255535775076579874e-02
-2.988175494934286469e-02
-1.607036991765375955e-02
-5.693896163993517057e-03
-2.420044791534570194e-04
9.862356435947905453e-04
-9.298515109911198451e-04
-5.512648337667513943e-03
-1.256221550072689208e-02
-2.064599571358372021e-02
-2.600386677956356696e-02
-2.436284677927436082e-02
-1.455030209238405980e-02
1.510088796259911881e-04
1.423667803985606550e-02
2.347849879781360727e-02
2.672032027563203682e-02
2.516111145161314955e-02
2.066360704626479805e-02
1.476319944538229123e-02
8.554581173007780315e-03
2.922020005405978615e-03
-1.181848807661256551e-03
-2.828963389691796504e-03
-1.579122296339996456e-03
2.283746787738405448e-03
7.981476007072996204e-03
1.465634152465189466e-02
2.163254570999056936e-02
2.836601965282264937e-02
3.409448518738067424e-02
3.739542938873224864e-02
3.624617447421091265e-02
2.913888424262495169e-02
1.671609360740367034e-02
2.606244120231582251e-03
-7.528161822632550848e-03
-8.796781993890834261e-03
-9.714606752470045237e-05
1.541581113127921121e-02
3.302021437919006042e-02
4.894135582207753687e-02
5.950037272278951850e-02
5.975253182630724247e-02
4.665289709861819567e-02
2.357315293908723852e-02
-8.638063192740741414e-04
-1.849151024476614058e-02
-2.567464695613397296e-02
-2.338539116817972552e-02
-1.508736857782999596e-02
-4.618312601692209363e-03
5.013233286812246448e-03
1.185576986332903537e-02
1.464272906065100521e-02
1.255205806347903241e-02
5.589221064346561185e-03
-4.778245261585434278e-03
-1.554023810104143699e-02
-2.302809032893537999e-02
-2.445850045817699048e-02
-1.936305522762604703e-02
-1.008239724965487305e-02
-7.715278749632625832e-04
4.793733017703027954e-03
5.183021165994783352e-03
1.544916535019424941e-03
-4.009378995039725169e-03
-1.032203752788335427e-02
-1.755358749676066976e-02
-2.588249523313940204e-02
-3.417846266407925659e-02
-4.005645371036303803e-02
-4.125945141984543874e-02
-3.713629813557617343e-02
-2.892392842380037132e-02
-1.874200062149505852e-02
-8.357539307561667741e-03
1.328167182350958875e-03
9.899187293069655613e-03
1.658763746190233812e-02
1.977363080021998787e-02
1.757460448862091518e-02
9.397981449402625920e-03
-2.820362746137061727e-03
-1.494503072389208320e-02
-2.261817472254079586e-02
-2.363909749833303930e-02
-1.870619159848979640e-02
-9.567209159452749745e-03
3.317464321500596114e-03
1.988014756460387833e-02
3.649092748319282542e-02
4.543617459178539431e-02
4.127686245462547365e-02
2.647081046181976038e-02
9.133550033957771319e-03
-3.278483811218535493e-03
-7.691505977925783277e-03
-5.153597134743503894e-03
