0.000000000000000000e+00
2.207278646474990780e-01
9.273862337396532318e-02
3.692691403623848956e-02
1.553404076205802675e-02
8.834211939819730519e-03
7.395690887273181913e-03
7.209193697147911473e-03
6.874284720175025121e-03
6.106155860652426326e-03
5.012266642584264908e-03
3.530330295806036189e-02
6.536550256703799189e-02
8.868650760870738781e-02
9.954591984658694992e-02
1.001051654748835174e-01
9.544464417648534926e-02
8.897874886420348295e-02
8.177144496504468174e-02
7.343882750950619931e-02
6.294430444751220044e-02
4.877077913102473294e-02
3.593448737720378316e-02
2.478393263070438612e-02
1.472055247337644701e-02
4.706488608351322434e-03
-5.546665469038258856e-03
-1.564712833552567295e-02
-2.502341653167444724e-02
-3.322430304788609456e-02
-3.400533618914108880e-02
-2.739295655892687309e-02
-1.498157702844965522e-02
4.790677472058524344e-04
1.677855394043620274e-02
3.285303203352957224e-02
4.848180416882758026e-02
6.374935118841440485e-02
7.853377872083422417e-02
9.222349196169160601e-02
1.037581461900089486e-01
1.120053781197111187e-01
1.167572604939895453e-01
1.184708124771087778e-01
1.176451506861033169e-01
1.144575046680387231e-01
1.088524469663775807e-01
1.008267194641553899e-01
9.060538255768979532e-02
7.967830927025243426e-02
6.966772694168166247e-02
6.179879474656047034e-02
5.649024507213240565e-02
5.328098155977167849e-02
5.087750295429782632e-02
4.731895609023106797e-02
4.058321118753949186e-02
2.959895402977497092e-02
1.491387325958715149e-02
-1.519813095543498527e-03
-1.756344343069460301e-02
-3.168784691631232331e-02
-4.338383642585652566e-02
-5.316827047290284547e-02
-6.228933445589274198e-02
-7.215387006583834362e-02
-8.356306948631686549e-02
-9.611882676553440419e-02
-1.084931215843105146e-01
-1.190631872306116557e-01
-1.265898028257032570e-01
-1.304561325375818703e-01
-1.305307223225661839e-01
-1.269586924063486610e-01
-1.201048516076071992e-01
-1.106154666622748972e-01
-9.937723997554534505e-02
-8.727536381405606725e-02
-7.489088837085031147e-02
-6.224330787082987815e-02
-4.886414969750416115e-02
-3.435632507759511789e-02
-1.932958964672171209e-02
-5.758395435756069602e-03
4.294146308411350699e-03
1.044628751304427228e-02
1.405265621120305175e-02
1.682049849285860432e-02
1.976784668341657891e-02
2.324824190640428778e-02
2.751316755694688254e-02
3.307982501679818110e-02
4.044904916484209911e-02
4.926160346815044999e-02
5.780929845557108981e-02
6.381677347793601740e-02
6.584203119198700493e-02
6.388427427511178536e-02
5.898273769310746761e-02
5.251411912949222049e-02
4.564187396677704678e-02
3.894928028659766506e-02
3.227829303732254740e-02
2.493385439964035388e-02
1.622884012654768338e-02
6.210603730358199570e-03
-3.641404063757458509e-03
-1.061807848563944834e-02
-1.227180696536211979e-02
-7.785879617196678204e-03
1.886349327990477498e-03
1.462473509297823604e-02
2.774241763823559470e-02
3.842227210305915186e-02
4.416758995516589792e-02
4.342213587325827184e-02
3.621480413545385968e-02
2.427620965317001112e-02
1.028712850581192662e-02
-3.233005691114398950e-03
-1.467909960882152198e-02
-2.352466627931537602e-02
-2.985335177277048668e-02
-3.336151452137614548e-02
-3.285392631352257453e-02
-2.731481503176591552e-02
-1.737198849642795917e-02
-5.435332556728456055e-03
5.262597255354717340e-03
1.176731692783361538e-02
1.216979645568416757e-02
6.000051759005531338e-03
-5.632268972039944366e-03
-2.016258442622381741e-02
-3.424822479733147240e-02
-4.496914544166569216e-02
-5.070071778881651836e-02
-5.111553075496461096e-02
-4.674126291429897551e-02
-3.855579934897840344e-02
-2.772303976823725646e-02
-1.546472652165714612e-02
-3.167747094613926340e-03
7.238399777612536390e-03
1.318385908057490008e-02
1.255640887591602528e-02
5.529693287893322484e-03
-4.928600260584337089e-03
-1.453439761650837658e-02
-1.966306105814996652e-02
-1.846375533553135107e-02
-1.093238601361057327e-02
1.596198159046879894e-03
1.705031260162059858e-02
3.307329261676061893e-02
4.738858382513500000e-02
5.826742295721143439e-02
6.497470803598104361e-02
6.782233825961470064e-02
6.780663861410785032e-02
6.614620207114563222e-02
6.391257501884883840e-02
6.168065906820852096e-02
5.911623008043032090e-02
5.479438076567610949e-02
4.690037131520496949e-02
3.477274251903983426e-02
1.978645081207097700e-02
4.640711832094357447e-03
-7.927051544424967844e-03
-1.599226537338060972e-02
-1.882248976339939706e-02
-1.699026501459155458e-02
-1.220443325633785436e-02
-6.686671372769292798e-03
-2.134144177255381525e-03
1.063437651863952116e-03
3.463040173413145517e-03
5.365496734994756878e-03
6.166703813894336417e-03
4.797048107987589294e-03
5.714615971476599832e-04
-6.293404881312469890e-03
-1.473545366983197713e-02
-2.330781035934356704e-02
-3.067589165656472994e-02
-3.585518336743914736e-02
-3.817433066418232657e-02
-3.713591558374468304e-02
-3.238414819908275177e-02
-2.402573342860228611e-02
-1.341526948643528838e-02
-3.685939129850435148e-03
1.460342563794181370e-03
2.298406096293281742e-04
-6.476988102419312110e-03
-1.663347137070070314e-02
-2.871714815815090693e-02
-4.194755438700492611e-02
-5.546628914969253810e-02
-6.736484075485882350e-02
-7.441296405601893760e-02
-7.321018728194511604e-02
-6.250711948582082789e-02
-4.455059676545286562e-02
-2.372784307053366071e-02
-4.028173670348911273e-03
1.231845435371275999e-02
2.468308439207755889e-02
3.320661722976575581e-02
3.794732634905334523e-02
3.834344034916165045e-02
3.329328404142573028e-02
2.186299151724119261e-02
4.268520351952076464e-03
-1.713710578177340960e-02
-3.777524444142710269e-02
-5.265587254015857699e-02
-5.871984092509119346e-02
-5.560443989002084031e-02
-4.491046182965030553e-02
-2.922666916954397287e-02
-1.157845036912463765e-02
4.847028412368503680e-03
1.715554176755429427e-02
2.356851800009229780e-02
2.414374408787400839e-02
2.063422894469024715e-02
1.546833819370674323e-02
1.059882300315473369e-02
6.767651781595773741e-03
3.372011176690281609e-03
-7.609192379801621442e-04
-5.677088834417198804e-03
-9.422746778390500566e-03
-9.568505816433203748e-03
-5.118871521165191396e-03
3.157031148251721042e-03
1.342010013578820438e-02
2.355701352661115910e-02
3.178740754059006246e-02
3.713354089919146395e-02
3.977050988981584156e-02
4.097272356385889269e-02
4.226823556062525578e-02
4.431075917144533527e-02
4.663632938249290261e-02
4.826281170281038202e-02
4.829979256427247014e-02
4.625291897895267290e-02
4.212104190014104299e-02
3.639178017217920003e-02
2.995771610841821420e-02
2.394615905077496221e-02
1.942868216229584610e-02
1.695478565613586786e-02
1.610903253642614885e-02
1.562337698428484245e-02
1.417737622866072078e-02
1.110895883409113161e-02
6.306569306367082461e-03
-4.433980900640510647e-04
-9.857134052990546014e-03
-2.283780727987083647e-02
-3.956765370088299871e-02
-5.855033629022410313e-02
-7.633787625925125830e-02
-8.853362511803675172e-02
-9.181100693526855760e-02
-8.555075807167267232e-02
-7.184400353992248522e-02
-5.411713479508462044e-02
-3.559644534588068954e-02
-1.847667003594599677e-02
-3.899754160692769922e-03
7.598372525968621893e-03
1.562261242741336265e-02
1.971704084497494236e-02
1.939458834956941935e-02
1.431346863710503126e-02
4.797203716386033712e-03
-7.390167663668179010e-03
-1.911315282815673200e-02
-2.723929015360426753e-02
-2.991635382083690509e-02
-2.681614271961740847e-02
-1.882328686263923245e-02
-7.712121515758840751e-03
4.160606663795585192e-03
1.433490862446096248e-02
2.094890654962555665e-02
2.335965887087648740e-02
2.213614173951478081e-02
1.835614185664885545e-02
1.295009221567322566e-02
6.664037941713996105e-03
4.726262176761308886e-04
-4.028993228138211258e-03
-4.812742567671834948e-03
-4.508967877093206233e-04
8.809143234061345140e-03
2.102575643254794846e-02
3.347761915205132999e-02
4.365953908798303473e-02
4.986644772303561179e-02
5.134692488956021927e-02
4.822702051371052789e-02
4.139410746812149933e-02
3.231492322338114231e-02
2.262892073628358647e-02
1.360311596688579261e-02
5.802740731393529749e-03
-8.201132022211399253e-04
-6.545851828066495681e-03
-1.152040927299463613e-02
-1.570484091971596774e-02
-1.920216985341816063e-02
-2.248139066907395289e-02
-2.590387047106945673e-02
-2.907706932830667057e-02
-3.101469507195153685e-02
-3.080699306333645193e-02
-2.800430676202536606e-02
-2.259640531556861287e-02
-1.489160408331724472e-02
-5.501763943413395808e-03
4.588914803339672055e-03
1.404625842511608713e-02
2.148091294311582633e-02
2.594306393597234361e-02
2.722767158424721501e-02
2.573155155819384365e-02
2.200900995174182029e-02
1.634698451216887172e-02
8.662487868820734072e-03
-1.051407302405049649e-03
-1.194234530884341616e-02
-2.213476751124932029e-02
-2.964041568988995401e-02
-3.333890468962152909e-02
-3.318090070722357066e-02
-2.982486775074566498e-02
-2.419287247774448701e-02
-1.716194687397332164e-02
-9.402373696473509401e-03
-1.383324188490187012e-03
6.391958632079974834e-03
1.306809883757503732e-02
1.748055821586447234e-02
1.867963120232024599e-02
1.643911030931838324e-02
1.134848765683074689e-02
4.566896922329338748e-03
-2.490344742731409600e-03
-8.358378026341900524e-03
-1.161495236469459180e-02
-1.097505446348301383e-02
-5.591170840408804521e-03
4.282577452567909448e-03
1.668636781933655056e-02
2.858496724790893229e-02
3.776335132147878859e-02
4.381222426588599062e-02
4.710459691796753390e-02
4.730841633763599452e-02
4.301684604267180800e-02
3.262561649400930186e-02
1.579035563212960458e-02
-5.322483323633220298e-03
-2.593223493864910134e-02
-4.052367529279171654e-02
-4.588266373719857016e-02
-4.257869558809246335e-02
-3.369788050040145588e-02
-2.257919240275862993e-02
-1.144384720294461255e-02
-1.243872498305764740e-03
7.784235505530090471e-03
1.541662693384443505e-02
2.104390737047728832e-02
2.374261552496953476e-02
2.259181133458137980e-02
1.721437964020378075e-02
8.525458031868993203e-03
-1.262026025654505723e-03
-9.760143078182625942e-03
-1.537998214101121697e-02
-1.740167397604952537e-02
-1.567932214062084384e-02
-1.057696809349251144e-02
-3.154104448918726433e-03
4.793777749171779234e-03
1.120917831784962182e-02
1.467054700340197915e-02
1.502845115009954213e-02
1.316266484287453853e-02
1.013591837889993297e-02
6.443746830387842017e-03
1.751150848086635570e-03
-4.618303335520157482e-03
-1.237366370267301008e-02
-1.940040643192764147e-02
-2.302202514634121844e-02
-2.201918976425687458e-02
-1.714631841752617403e-02
-1.034285794582434637e-02
-3.735380696930690192e-03
1.051345581444484978e-03
3.232840768479128268e-03
2.946670046500954321e-03
1.079432797369273000e-03
-1.245737827157034072e-03
-3.280869465450253486e-03
-4.814361050995807911e-03
-5.912627378377388609e-03
-6.694755659273576853e-03
-7.249069248340511695e-03
-7.567393742572259274e-03
-7.451037482096745102e-03
-6.464433881938791426e-03
-4.058946312049616090e-03
7.042479804325596504e-05
5.545173354850219116e-03
1.131532701122761608e-02
1.647585780379012821e-02
2.106736882447873827e-02
2.578165172535895611e-02
3.085583566242333653e-02
3.527863277517584439e-02
3.696843578771874528e-02
3.382665742720458724e-02
2.511157647917749980e-02
1.234727078573671921e-02
-1.008970771280037759e-03
-1.123916640573030534e-02
-1.621727247921278536e-02
-1.600920463061028531e-02
-1.210845782660208148e-02
-6.284628026461125394e-03
1.515466381225571979e-04
6.489362821290867167e-03
1.235646454248529036e-02
1.736096994067526378e-02
2.089408643295220802e-02
2.213068484076285980e-02
2.019571635858830039e-02
1.464044177872769747e-02
6.095258992873553439e-03
-3.635147626689039235e-03
-1.229759493341853194e-02
-1.806491568632140332e-02
-2.004444536475824545e-02
-1.843343620539317218e-02
-1.441877264527235969e-02
-9.813967181526050965e-03
-6.420118481001213517e-03
-5.278562467717851092e-03
-6.274182593706267852e-03
-8.515023768891849532e-03
-1.119577742787908337e-02
-1.406994839287634136e-02
-1.717028328428610306e-02
-2.026456556153161115e-02
-2.267708227543785426e-02
-2.366225383152736894e-02
-2.296342880928181618e-02
-2.098835047309033364e-02
-1.846493100412843757e-02
-1.594228957907051214e-02
-1.350526472361707198e-02
-1.083658957025074310e-02
-7.574186646448988203e-03
-3.675392485284534327e-03
6.645253654536387167e-04
5.529736515977656808e-03
1.146811206878461942e-02
1.887279535431396482e-02
2.714065343136662367e-02
3.443931862148885692e-02
3.832121814948152849e-02
3.686297301046947972e-02
2.979103528091231468e-02
1.898221028703828139e-02
7.816257911309576478e-03
-4.609322153596995264e-04
-4.213241106341580888e-03
-3.672442646378559772e-03
-1.535067518186883362e-04
4.877248746334772456e-03
1.030223268029861750e-02
1.538788327290807612e-02
