0.000000000000000000e+00
3.639185606540280005e-01
1.514184736050693536e-01
5.608836103547709673e-02
1.749507333079630689e-02
4.320493207704556582e-03
1.277376237857785757e-03
1.461914055877366891e-03
2.104013220101286219e-03
2.325026814122027607e-03
2.020636524949215307e-03
1.342218410255557881e-03
4.792464770194682089e-04
-4.165917381414863119e-04
-1.246380583055040070e-03
-1.956576792649350471e-03
2.899728394327967529e-02
5.800965363975282840e-02
7.809553837912090735e-02
8.297624963136446263e-02
7.405379633506881110e-02
5.473379376395348661e-02
3.536770060651645009e-02
2.013739171159556474e-02
1.036188611624494493e-02
4.268630749838020488e-03
-4.105119122335687543e-04
-4.943584632862818573e-03
-9.625017390440693266e-03
-1.424118590954215335e-02
-1.844317032181874705e-02
-2.194282291325189149e-02
-2.458161622667570656e-02
-2.633009609436764986e-02
-2.725724679965363384e-02
-2.149244983035986101e-02
-9.701055229326793761e-03
6.011310497838096012e-03
2.252117458111185799e-02
3.724938592516907621e-02
4.850529933002939442e-02
5.591698402447303762e-02
6.009698800767188098e-02
6.230832827300369914e-02
6.377019888413554272e-02
6.513228541265009275e-02
6.637194480027402976e-02
6.702788425279876394e-02
6.653715952150895951e-02
6.446421219360021215e-02
6.057168681387981035e-02
5.480295926554190622e-02
4.724812293357050219e-02
3.811959587488733536e-02
2.879942653099087924e-02
2.096563332702539029e-02
1.613542221078301253e-02
1.517699242462833276e-02
1.802760806832259810e-02
2.347786482662472807e-02
2.883311749714911887e-02
3.051439872160000011e-02
2.548599046116972744e-02
1.260417311807249252e-02
-7.116699925611813526e-03
-3.119822154383278257e-02
-5.652058835324280661e-02
-7.983065686696122487e-02
-9.819228646266309202e-02
-1.096062557679018945e-01
-1.134822531267417056e-01
-1.105983990519444626e-01
-1.026083242024951603e-01
-9.163021556036377024e-02
-7.971868569116141723e-02
-6.851222664070855117e-02
-5.901855134002281789e-02
-5.154597196607868526e-02
-4.580385308640599895e-02
-4.114037369098977326e-02
-3.685755058046658039e-02
-3.239178180285154363e-02
-2.727232596299197787e-02
-2.097298551116716370e-02
-1.282213688604127988e-02
-2.113855613352561003e-03
1.141491602655952953e-02
2.678538607092512125e-02
4.149713591172510263e-02
5.280929358465413781e-02
5.961236859231000551e-02
6.277601711823033170e-02
6.397715482182442237e-02
6.440247255525477499e-02
6.414215456716676478e-02
6.243101959009850210e-02
5.842924789284120735e-02
5.183798068284473093e-02
4.299363361835206732e-02
3.264146069902568170e-02
2.168581726060897497e-02
1.105143082841236746e-02
1.648937964669583423e-03
-5.614605330430511021e-03
-9.842866102741154588e-03
-1.024205542123296508e-02
-6.351484638017268480e-03
1.656493581161322393e-03
1.279716534742880718e-02
2.525626486838450369e-02
3.658549470777172630e-02
4.440154030175491595e-02
4.726677193069572791e-02
4.491805389963277051e-02
3.788464804419033882e-02
2.716898622305730093e-02
1.427976458987445518e-02
1.278119430840107817e-03
-9.634140656445966400e-03
-1.682336167789277859e-02
-1.966550752098605859e-02
-1.852301557046454050e-02
-1.445681670408316410e-02
-8.910262728133999666e-03
-3.490534450722782012e-03
1.264059600771805236e-04
2.760561285736207182e-04
-4.317326936665533132e-03
-1.368470034134705582e-02
-2.607948031273488176e-02
-3.885557196234978861e-02
-4.986443836182374856e-02
-5.783099949973163900e-02
-6.194778999892724958e-02
-6.173510580177155038e-02
-5.740343842003292618e-02
-5.001412834668095275e-02
-4.108887112599030056e-02
-3.208854741389771670e-02
-2.411042148873465685e-02
-1.780275542093368024e-02
-1.338311129337127481e-02
-1.068864345230491342e-02
-9.239481951637928958e-03
-8.300605880784128754e-03
-6.918493240008871670e-03
-3.975385690524357862e-03
1.550843408835378412e-03
9.967676899394872780e-03
2.031811255879062417e-02
3.083794436408054951e-02
4.028193727976381311e-02
4.853684259395940614e-02
5.597550820253149872e-02
6.263482471759129755e-02
6.802894386129876292e-02
7.151580142748220625e-02
7.276433805212656480e-02
7.193193733650260491e-02
6.950714235192934076e-02
6.603979804088289107e-02
6.195445968688639837e-02
5.750599273978862502e-02
5.284932951449095029e-02
4.816464544783705115e-02
4.376817105964037058e-02
4.011291072123035484e-02
3.754729782880072975e-02
3.578206812395301473e-02
3.338901850964071105e-02
2.808151909049994011e-02
1.801715764729572289e-02
2.882464690525110562e-03
-1.632818825641357829e-02
-3.809549162156899982e-02
-6.063052299029803027e-02
-8.164834790826225319e-02
-9.856280899909652948e-02
-1.094150532349357774e-01
-1.136525578045279872e-01
-1.120855962101268144e-01
-1.062895880932976378e-01
-9.797544733076435364e-02
-8.859216086695687054e-02
-7.917846581906912151e-02
-7.037342263695400835e-02
-6.248126843992057866e-02
-5.552850768578831975e-02
-4.932804981754085327e-02
-4.358744109038292791e-02
-3.800367461021872395e-02
-3.224294310492190063e-02
-2.583118435258974221e-02
-1.808663566603235795e-02
-8.228447662351534575e-03
4.175233722472942999e-03
1.834723966690762764e-02
3.172409099966366774e-02
4.113729773781388266e-02
4.535115001994871609e-02
4.599441860115588421e-02
4.592867313064691315e-02
4.702011888498025538e-02
4.905790908160634345e-02
5.032992877239839125e-02
4.912527076426637107e-02
4.476737218636567261e-02
3.765253696498577218e-02
2.877257055144255560e-02
1.925003292112026365e-02
1.008203274282953865e-02
2.075431135740490873e-03
-4.112817615508523872e-03
-7.921618026984156291e-03
-8.902989974678643392e-03
-6.871674968533969530e-03
-2.113010271444837329e-03
4.606225796031981901e-03
1.227698051072462215e-02
1.991071067987398857e-02
2.689542419688278896e-02
3.322251263834263835e-02
3.892255776358810593e-02
4.326738076861702531e-02
4.490706663475385607e-02
4.294011297640409897e-02
3.785306495392914972e-02
3.137091259990543168e-02
2.545719345880603779e-02
2.145579229329386273e-02
1.984636579416354518e-02
2.041871506957715354e-02
2.254529805750760119e-02
2.536841607631934448e-02
2.783515293001581625e-02
2.859340808232280207e-02
2.594395020507933580e-02
1.836260465702088673e-02
5.824722053959674462e-03
-9.599221680223202213e-03
-2.531358381415005354e-02
-3.986199176068649930e-02
-5.269989524394980140e-02
-6.303370987424045113e-02
-6.961860042216899691e-02
-7.181297895136695697e-02
-7.019994998914264039e-02
-6.608740629986165072e-02
-6.077943836161125990e-02
-5.522558391168136405e-02
-5.000718387089742034e-02
-4.544313264711924427e-02
-4.166725065107651504e-02
-3.863971969747309609e-02
-3.612932637699389771e-02
-3.371694323228796586e-02
-3.084372746443281299e-02
-2.690089455938740604e-02
-2.134429816818506076e-02
-1.385781138918384947e-02
-4.645964919871403698e-03
5.293978636496332602e-03
1.440744768283364063e-02
2.144925034768463412e-02
2.623865234136446567e-02
2.959413870276683678e-02
3.264179107871628682e-02
3.612366183563697764e-02
4.007679949916814754e-02
4.390502223116371505e-02
4.668674180324661194e-02
4.753693487424948128e-02
4.589843631362144905e-02
4.169865991470117494e-02
3.535571310254048694e-02
2.766337724331385806e-02
1.961382120968391263e-02
1.221615672057285718e-02
6.341407334662929607e-03
2.590683332412191398e-03
1.200780138302826039e-03
2.057579654569874350e-03
4.820509642776915626e-03
8.972117234469445535e-03
1.369597455166582378e-02
1.794649457724883934e-02
2.095852313584256610e-02
2.241614960589477512e-02
2.181064699838908272e-02
1.811797138947424113e-02
1.057808232534185322e-02
-1.685523999798155259e-04
-1.190464451180373029e-02
-2.199524100266836424e-02
-2.873310246303828475e-02
-3.177987334244325446e-02
-3.180596464373691701e-02
-2.992036121308794261e-02
-2.724062002032828778e-02
-2.467047791601872930e-02
-2.281125445986398326e-02
-2.186250887039475899e-02
-2.148630561081726897e-02
-2.097905684862039211e-02
-1.999098245621994119e-02
-1.903285528492293377e-02
-1.891441279071304216e-02
-1.971846148036476842e-02
-2.053317596983394999e-02
-2.018185697879615326e-02
-1.808948546084954145e-02
-1.448880980381944683e-02
-1.003147613973781604e-02
-5.303667222245289636e-03
-5.888646344087700157e-04
4.085029077598945069e-03
8.780943168289256917e-03
1.354063714889708336e-02
1.836329345837900417e-02
2.319331503188015731e-02
2.781889530056436133e-02
3.173362415053848640e-02
3.433525288260469432e-02
3.565870082635891336e-02
3.670765583586566017e-02
3.855106751961490108e-02
4.117925410077316606e-02
4.345228532854517045e-02
4.410488195138362322e-02
4.272115123843056583e-02
3.985505970790992336e-02
3.650601204893588747e-02
3.356856510537453708e-02
3.153701014658183421e-02
3.042102037734095710e-02
2.976762106360342219e-02
2.873230184759056893e-02
2.618924337278172310e-02
2.091398776104880231e-02
1.192738930594905433e-02
-9.023647228211251203e-04
-1.626558165756852858e-02
-3.168826521568457455e-02
-4.482841658424718823e-02
-5.447917771573962398e-02
-6.045095926468746494e-02
-6.293160034204681175e-02
-6.225174755158580098e-02
-5.908365720718417036e-02
-5.442019869888820027e-02
-4.923678045277529725e-02
-4.422990242751911882e-02
-3.979432123761755813e-02
-3.611658966434994067e-02
-3.324011240128832423e-02
-3.106766495497331748e-02
-2.935169514298754945e-02
-2.771757233209568017e-02
-2.570821819674587450e-02
-2.281061559757702195e-02
-1.846348014083942779e-02
-1.212408308871645857e-02
-3.567287020406595399e-03
6.444173480321557790e-03
1.559623759863590364e-02
2.084553877331929428e-02
2.069084987730723801e-02
1.652974259023592962e-02
1.165507224621853410e-02
9.137366721877648867e-03
1.023942444593484158e-02
1.412825760314095902e-02
1.879699505663956494e-02
2.232865102193115625e-02
2.364592083645672416e-02
2.259328102730712162e-02
1.965475126836535580e-02
1.561086238237979762e-02
1.128221536310231032e-02
7.384012179450560875e-03
4.453430197216945441e-03
2.786023340276777560e-03
2.329275429708677070e-03
2.600877253775057962e-03
2.858719740650217389e-03
2.543835672745742293e-03
1.639200526008743886e-03
8.968220273845028956e-04
1.921132240205736252e-03
6.239468672089798496e-03
1.355977715589362642e-02
2.129114566506784545e-02
2.614763196862646133e-02
2.637232749772189244e-02
2.261575618189026748e-02
1.697686234368900315e-02
1.151893895485267549e-02
7.494742783056507207e-03
5.341859553192995769e-03
4.973280104583754913e-03
6.005436424281862529e-03
7.796734476288702531e-03
9.348016938233616457e-03
9.305239191752190386e-03
6.486787447761654946e-03
1.026259703196918949e-03
-5.219872829223648480e-03
-1.035625559584207878e-02
-1.418792624469866759e-02
-1.771875286037766228e-02
-2.146212752605186624e-02
-2.475066550038274027e-02
-2.665392043188352655e-02
-2.692720928976344297e-02
-2.591589630141100109e-02
-2.406981298675459069e-02
-2.170739507361424403e-02
-1.903979521210880099e-02
-1.627801682674084871e-02
-1.369458169628079425e-02
-1.157781266281110444e-02
-1.009141482807751622e-02
-9.127306222074083042e-03
-8.260520711373398051e-03
-6.873070951364190773e-03
-4.452292016553172083e-03
-1.006234303752628900e-03
2.595266521703831764e-03
4.850456151824500406e-03
4.685200270341915996e-03
2.430579302565960553e-03
-3.508224622099098688e-04
-1.890744282331768833e-03
-1.111586586791724063e-03
2.082362970406981262e-03
7.016147444726894555e-03
1.265910760910005095e-02
1.798923462042922861e-02
2.219633965491885075e-02
2.475103824196833724e-02
2.541952144084536069e-02
2.427375339573145663e-02
2.168969197197068155e-02
1.829346583626123568e-02
1.482284422665935963e-02
1.191126764634609092e-02
9.867112347558548713e-03
8.601644246234219082e-03
7.808367342458710780e-03
7.226182696102423364e-03
6.753039119923864853e-03
6.469845940337615176e-03
6.567656563487900279e-03
6.909133939578593342e-03
6.584304358573378479e-03
4.257194593429769469e-03
-7.679407405979388201e-04
-7.701736532762848420e-03
-1.455539867494370920e-02
-1.940750809691083045e-02
-2.146338546359294330e-02
-2.114410001997585331e-02
-1.950713215821930913e-02
-1.761741593467153200e-02
-1.616760368369168921e-02
-1.532774255199437219e-02
-1.474652939901560655e-02
-1.372888439010644390e-02
-1.165308113247726096e-02
-8.518418533867311293e-03
-5.177349743521020287e-03
-2.826626657864594883e-03
-2.073149162677978552e-03
-2.434224207009449970e-03
-2.698833160212465998e-03
-1.812169544245567643e-03
3.316340849127130674e-04
2.655944068350624132e-03
3.506755466215538686e-03
1.858054723030855282e-03
-1.855215689022526870e-03
-5.984992465407901197e-03
-8.641903979805798386e-03
-8.615376726798906759e-03
-5.786637262042482188e-03
-9.636294630496200497e-04
4.650002531248476068e-03
9.987386593449221195e-03
1.436410563707113397e-02
1.740863437898143573e-02
1.890853865881314544e-02
1.879907702607142017e-02
1.727719140211980697e-02
1.485355465116144913e-02
1.220845311022200619e-02
9.904594541573552569e-03
