0.000000000000000000e+00
3.639185606540280005e-01
1.631467171011478368e-01
9.141693269945372347e-02
7.165398738649661481e-02
6.518711104285171420e-02
5.865910253961736931e-02
5.013238547871598505e-02
4.090822223977172434e-02
3.230232951684458564e-02
2.494991920496636428e-02
1.896168738299740253e-02
1.419450751219385187e-02
1.043151655499278962e-02
7.466321145992993458e-03
5.129727517869539510e-03
3.481410155724372346e-02
6.241018515521166987e-02
8.266621981361586824e-02
9.240026751959651286e-02
9.484231255464450894e-02
8.911944336537913625e-02
8.103732979050731755e-02
6.683560608201660758e-02
4.748221406529173905e-02
2.752676636562984003e-02
1.051852559937360709e-02
-2.667775114270132253e-03
-1.259872643159393180e-02
-2.001806706852432560e-02
-2.543301898245425852e-02
-2.918553957623515327e-02
-3.160772035579673123e-02
-3.309443271793466312e-02
-3.407832733188753682e-02
-2.895142526411575989e-02
-1.796161559181586043e-02
-2.506350946923696643e-03
1.591383693441972280e-02
3.670478048671599325e-02
5.862432120049898554e-02
7.830156447563657585e-02
9.240947130759852302e-02
1.001553324861348404e-01
1.036423671010202607e-01
1.060143944069479871e-01
1.092356404559531868e-01
1.131873842312668965e-01
1.163510732393149283e-01
1.170144880305822865e-01
1.140187638352270216e-01
1.069048609088949497e-01
9.576166386826556742e-02
8.103304364002361648e-02
6.444499165125883167e-02
4.850902699360171155e-02
3.589280855033549766e-02
2.879635749492204244e-02
2.852371069981185503e-02
3.497452626947061827e-02
4.516430144180394457e-02
5.330778991425344504e-02
5.282819790115045322e-02
3.946084554889561780e-02
1.291657835248882780e-02
-2.388486965338076917e-02
-6.631893708719660552e-02
-1.086955111712520905e-01
-1.446052211091374273e-01
-1.682163649998157928e-01
-1.762747816134902501e-01
-1.694487157799168253e-01
-1.519908177302586871e-01
-1.299945497318733545e-01
-1.088598236919628426e-01
-9.170859926951935304e-02
-7.927418688896192833e-02
-7.078336559906722725e-02
-6.501533793264224759e-02
-6.089889153112293396e-02
-5.768438204056886009e-02
-5.475484972304342501e-02
-5.132240998219597672e-02
-4.630433853165130675e-02
-3.847920412179578475e-02
-2.682408475176051299e-02
-1.097445103687552659e-02
8.246753166773257426e-03
2.875866189397530137e-02
4.803049470379144870e-02
6.365791682463284307e-02
7.317177182377748723e-02
7.478046213793615449e-02
6.915110197664942060e-02
5.987976030649444503e-02
5.129347578500181859e-02
4.554516520089080256e-02
4.199473087903510260e-02
3.877293513139445924e-02
3.437890745392246927e-02
2.828183308437043353e-02
2.082308594093329468e-02
1.290322151935652251e-02
5.661872319491334515e-03
1.772953670618471200e-04
-2.816354066575987858e-03
-3.137713908932138196e-03
-1.109772727881708221e-03
2.870167097736908701e-03
8.759751731732268176e-03
1.674526886466032316e-02
2.660882025217425895e-02
3.708994030542489551e-02
4.585704214960406588e-02
5.011796984622729489e-02
4.749445117713035902e-02
3.731037779789914133e-02
2.162577047989666656e-02
4.534290517201555737e-03
-9.920398144957598419e-03
-1.935494543836124848e-02
-2.332000876831352709e-02
-2.268842319665076435e-02
-1.890752565971232091e-02
-1.356474754324732412e-02
-8.319966684780966126e-03
-4.926956551236982840e-03
-4.852976660765451200e-03
-8.298711281447990196e-03
-1.367327927653683162e-02
-1.887746669850931536e-02
-2.301052520376345445e-02
-2.616408493057509332e-02
-2.815722593543962260e-02
-2.851763937350132450e-02
-2.748035483687016889e-02
-2.595941784295724419e-02
-2.455625117618143172e-02
-2.315421042081905467e-02
-2.132777597127405445e-02
-1.882964744584442185e-02
-1.572230896912918396e-02
-1.223882055670172386e-02
-8.626771896375451387e-03
-5.087497886456238128e-03
-1.741981545893001027e-03
1.419082675548744010e-03
4.446318306570440360e-03
7.075658702262288546e-03
8.554595318263358283e-03
8.351372386191435737e-03
7.063409962897837513e-03
6.031168871260927933e-03
6.422226876288072983e-03
9.371935571790390718e-03
1.608892711382181595e-02
2.666938426569909204e-02
3.936303745594216252e-02
5.164129893248725622e-02
6.165210302959023281e-02
6.868123284696658892e-02
7.279439547004040723e-02
7.434974026036178518e-02
7.374414885713898027e-02
7.140431600470353857e-02
6.788990999550159611e-02
6.394604134521453265e-02
6.033352369763222978e-02
5.734167686373903283e-02
5.417568541405215488e-02
4.877571734956365201e-02
3.855446102948123510e-02
2.179313329971122037e-02
-1.284011683992392072e-03
-2.848658638658219111e-02
-5.605933250726657935e-02
-7.872626690793538273e-02
-9.059996559289829055e-02
-8.802977999725752900e-02
-7.219462383815822282e-02
-4.886496434766607333e-02
-2.568021061330161281e-02
-8.988202878022155673e-03
-1.873876615498593079e-03
-3.919948299662023850e-03
-1.232415070585241024e-02
-2.349859005152271640e-02
-3.434102780099523855e-02
-4.284044540745840512e-02
-4.811141969419596709e-02
-5.006830714017729278e-02
-4.893655493672502410e-02
-4.483842335060475581e-02
-3.763870080444881028e-02
-2.709058876165135188e-02
-1.329134843080187478e-02
2.571385870829390186e-03
1.780584335197832324e-02
2.924549660598979584e-02
3.484928844748180765e-02
3.355836868165190667e-02
2.441772105670869664e-02
7.622046186768705045e-03
-1.302041176360480002e-02
-3.026701958678607030e-02
-3.817004232584575441e-02
-3.599359757086950662e-02
-2.710839942116000101e-02
-1.565901752893011922e-02
-4.536771094024227846e-03
4.883847815082720256e-03
1.222382001339422652e-02
1.752962621022996492e-02
2.087761307328278582e-02
2.211808762283168361e-02
2.071034968676038757e-02
1.577433038743208948e-02
6.609129528258650410e-03
-6.497953814945167661e-03
-2.175252643392078244e-02
-3.579317035802043190e-02
-4.433165933055427388e-02
-4.381624034852316107e-02
-3.351656375095735108e-02
-1.682321258543906239e-02
-9.303926176928989378e-06
1.158306926174001994e-02
1.638328192151172757e-02
1.604623891689804793e-02
1.330750498373478585e-02
1.052286775514699180e-02
9.243089910523583086e-03
1.023434880655083035e-02
1.350583500393753855e-02
1.825380838316692511e-02
2.281699736900177911e-02
2.485935956543916525e-02
2.222509519932147626e-02
1.466978610636548996e-02
4.843474862285312987e-03
-3.510753201229954712e-03
-8.249550144019401898e-03
-9.104498769564872696e-03
-5.912699318575354024e-03
1.727119620425099367e-03
1.264653036135959807e-02
2.384020611479997775e-02
3.243853777053973264e-02
3.716421220833154848e-02
3.820160425353885669e-02
3.632534284182659112e-02
3.221663465100138568e-02
2.628449273858590729e-02
1.885057216714985939e-02
1.041049655678627506e-02
1.758952398264845840e-03
-6.076672528386617422e-03
-1.202333540381630983e-02
-1.515996169832933838e-02
-1.490835279828595095e-02
-1.131703227512020904e-02
-5.314630343545456714e-03
1.491482161632085024e-03
7.434052423095083295e-03
1.103211709608931113e-02
1.060594593253705309e-02
4.196183540504938581e-03
-9.333185380817121679e-03
-2.840138823124305212e-02
-4.792173944547084563e-02
-6.139423787359421514e-02
-6.466903960835090892e-02
-5.801179042603732405e-02
-4.504946137139087536e-02
-3.018676011015719585e-02
-1.662953353916818422e-02
-5.817332502116911996e-03
2.124244306757394618e-03
7.602651881720268179e-03
1.091379470914333183e-02
1.194848120653735357e-02
1.032892668669316283e-02
5.859355854385239759e-03
-1.045335471223318713e-03
-9.161459588860165759e-03
-1.635970335249503638e-02
-1.981822438942193454e-02
-1.731011685237715536e-02
-9.070029367797771691e-03
1.635733880752776592e-03
1.023644743846208183e-02
1.402003765277615166e-02
1.386802767340111764e-02
1.263690963162733549e-02
1.232528899660273458e-02
1.297538796277375450e-02
1.344261361089643669e-02
1.261066600265697835e-02
1.011764035268086781e-02
6.483366534453416374e-03
2.918054215620080605e-03
1.109750443730961322e-03
2.946982355093663575e-03
9.634913713371995314e-03
2.018906348805665774e-02
3.104246943682353876e-02
3.806182481656555927e-02
3.909135468885005515e-02
3.461198130326748057e-02
2.668341038515648078e-02
1.763356646944208572e-02
9.286627352448340034e-03
2.721915782595230038e-03
-1.726609048492200316e-03
-4.428549127354519666e-03
-6.301262078977576397e-03
-8.380216554726704903e-03
-1.122974573809004672e-02
-1.461591067977291436e-02
-1.778461765952510376e-02
-2.023170611002339525e-02
-2.235198088949319484e-02
-2.512900450717836520e-02
-2.872377225601674411e-02
-3.146755790243338513e-02
-3.067488466548973225e-02
-2.456116863025203934e-02
-1.370953129209540045e-02
-9.628525820316591322e-04
1.035234968562370739e-02
1.832240408680263499e-02
2.294693488400489922e-02
2.544915837936279068e-02
2.733020644880346239e-02
2.964146239242682057e-02
3.253269477241627072e-02
3.509152984299557243e-02
3.553664858143379401e-02
3.176124218475973038e-02
2.215509182231956142e-02
6.685789872269309875e-03
-1.206024059465038434e-02
-2.903408347992475491e-02
-3.885285898071988431e-02
-3.850243838122502371e-02
-2.852458736742025103e-02
-1.230807308746950657e-02
5.370265939829088619e-03
1.992118190024377844e-02
2.849201067672357812e-02
3.061581525992529418e-02
2.758667860808367012e-02
2.130783320912055245e-02
1.341975824002245021e-02
4.987872192673770133e-03
-3.365232219644020972e-03
-1.115632765850807506e-02
-1.782062186968177975e-02
-2.267787209277788429e-02
-2.502369076033819639e-02
-2.423385493558938286e-02
-1.986198218455781372e-02
-1.187549755728206646e-02
-1.185774016978252687e-03
9.971738492138892962e-03
1.893642089070213252e-02
2.449459706613976717e-02
2.722000238914834558e-02
2.749966689495425554e-02
2.361358794176154907e-02
1.287931574168865723e-02
-4.050398729208148918e-03
-2.144360677771584012e-02
-3.274382832708011559e-02
-3.529633681620564234e-02
-3.065656926282361860e-02
-2.211479725167359023e-02
-1.257121812276873474e-02
-3.774812861202458958e-03
3.536010539310407985e-03
9.216361499605085772e-03
1.332939467693711189e-02
1.584158628031417937e-02
1.642954890314041183e-02
1.454650346027258623e-02
9.699598420845612079e-03
1.571846721779346367e-03
-9.809462099712229488e-03
-2.310452838255216967e-02
-3.453365621918091932e-02
-3.891462439544068896e-02
-3.353311554405691286e-02
-2.114045367727468427e-02
-7.955893456891072191e-03
1.261618886820192742e-03
5.481576323532522110e-03
6.048844353834237353e-03
4.704870424009799379e-03
2.711660430627871321e-03
8.438281269009806351e-04
-4.128129434796123931e-04
-8.329040245945718013e-04
-6.412339631109986726e-04
-6.529406956693462050e-04
-1.803557964411561798e-03
-3.799115433870570158e-03
-4.356642832271107046e-03
-1.150245494190516027e-03
5.415619082282385754e-03
1.247364933537786769e-02
1.758174593604217018e-02
2.032187309707483847e-02
2.115319391708986307e-02
2.025446783352163882e-02
1.776132686712189601e-02
1.417538673749096922e-02
1.027733538021136095e-02
6.804731054893653486e-03
4.193066026350056319e-03
2.482360998442123545e-03
1.390791459222773252e-03
5.141519424116669512e-04
-4.331136387952239097e-04
-1.445191361045761180e-03
-2.214001460443815184e-03
-2.312852197062564841e-03
-1.513768176929719544e-03
-3.472897902295768446e-05
1.726638539393143823e-03
4.003731201429328035e-03
7.793758619865920334e-03
1.343302319250277987e-02
1.895089284296674892e-02
2.037230580280924297e-02
1.447994062101526369e-02
1.808140075733044583e-03
-1.322777870142910484e-02
-2.521654965934294612e-02
-3.080247026757687578e-02
-2.972842310016399203e-02
-2.398805466833797695e-02
-1.629493826422312441e-02
-8.854554729120445167e-03
-2.827722274566957239e-03
1.571394022020999870e-03
4.613071100958099358e-03
6.553812956651472454e-03
7.401451379232204530e-03
7.049138409431221497e-03
5.544189053856118932e-03
3.236169306094494047e-03
8.384499859231953067e-04
-6.929763732909099971e-04
-7.223777710836376542e-04
4.325089915809821051e-04
1.516164311714640611e-03
1.318976055985854323e-03
3.465751095554914230e-05
-7.004718475736027017e-04
4.499320512732496447e-04
3.131634201836708264e-03
5.801041463806722032e-03
7.081139009356252068e-03
6.458835229551374013e-03
4.140561143088472562e-03
7.051761912509335595e-04
-3.046439741439532778e-03
-6.147662367861572719e-03
-7.699300747583071036e-03
-7.353290255772026995e-03
-5.702144844432377457e-03
-4.051251386795517995e-03
-3.584277990016371263e-03
-4.557635401508552953e-03
-6.138059685402652566e-03
-7.008154918525077992e-03
-6.286627533299837811e-03
-4.006154218297808267e-03
-6.470663071918569820e-04
3.826111909959406532e-03
1.009234805303582672e-02
1.814867611895781829e-02
2.574555150378282642e-02
2.869890242475697795e-02
2.381100089461946068e-02
1.185721990062171827e-02
-2.681101134745955683e-03
-1.464651259283977769e-02
-2.088389428016113047e-02
-2.099661335950253616e-02
-1.664855796997877224e-02
-1.031473633915047650e-02
-4.135200485498202738e-03
7.182300125245788536e-04
4.027594826990110732e-03
6.067412379313630311e-03
